<?xml version="1.0"?>
<opencv_storage>
<cascade>
  <stageType>BOOST</stageType>
  <featureType>HAAR</featureType>
  <height>20</height>
  <width>20</width>
  <stageParams>
    <boostType>GAB</boostType>
    <minHitRate>9.9500000476837158e-01</minHitRate>
    <maxFalseAlarm>5.0000000000000000e-01</maxFalseAlarm>
    <weightTrimRate>9.4999999999999996e-01</weightTrimRate>
    <maxDepth>1</maxDepth>
    <maxWeakCount>100</maxWeakCount></stageParams>
  <featureParams>
    <maxCatCount>0</maxCatCount>
    <featSize>1</featSize>
    <mode>BASIC</mode></featureParams>
  <stageNum>7</stageNum>
  <stages>
    <!-- stage 0 -->
    <_>
      <maxWeakCount>2</maxWeakCount>
      <stageThreshold>-6.3642770051956177e-02</stageThreshold>
      <weakClassifiers>
        <_>
          <internalNodes>
            0 -1 6 2.9338335990905762e-01</internalNodes>
          <leafValues>
            -9.5151513814926147e-01 8.9866667985916138e-01</leafValues></_>
        <_>
          <internalNodes>
            0 -1 1 1.6047739982604980e-01</internalNodes>
          <leafValues>
            -9.1662353277206421e-01 8.8787239789962769e-01</leafValues></_></weakClassifiers></_>
    <!-- stage 1 -->
    <_>
      <maxWeakCount>2</maxWeakCount>
      <stageThreshold>-1.6831560432910919e-01</stageThreshold>
      <weakClassifiers>
        <_>
          <internalNodes>
            0 -1 11 4.8248011618852615e-02</internalNodes>
          <leafValues>
            -8.6198240518569946e-01 8.3394640684127808e-01</leafValues></_>
        <_>
          <internalNodes>
            0 -1 5 2.8200602531433105e-01</internalNodes>
          <leafValues>
            -8.8926047086715698e-01 6.9366681575775146e-01</leafValues></_></weakClassifiers></_>
    <!-- stage 2 -->
    <_>
      <maxWeakCount>4</maxWeakCount>
      <stageThreshold>-3.4672379493713379e-01</stageThreshold>
      <weakClassifiers>
        <_>
          <internalNodes>
            0 -1 9 -7.1865305304527283e-02</internalNodes>
          <leafValues>
            8.4172660112380981e-01 -6.9540876150131226e-01</leafValues></_>
        <_>
          <internalNodes>
            0 -1 17 6.2915891408920288e-02</internalNodes>
          <leafValues>
            -8.2798653841018677e-01 6.4693558216094971e-01</leafValues></_>
        <_>
          <internalNodes>
            0 -1 2 7.9813301563262939e-02</internalNodes>
          <leafValues>
            -7.5646489858627319e-01 6.5320760011672974e-01</leafValues></_>
        <_>
          <internalNodes>
            0 -1 19 -7.8675867989659309e-03</internalNodes>
          <leafValues>
            5.2346384525299072e-01 -8.2313930988311768e-01</leafValues></_></weakClassifiers></_>
    <!-- stage 3 -->
    <_>
      <maxWeakCount>4</maxWeakCount>
      <stageThreshold>-2.1123895049095154e-01</stageThreshold>
      <weakClassifiers>
        <_>
          <internalNodes>
            0 -1 12 -3.6706045269966125e-02</internalNodes>
          <leafValues>
            8.1572771072387695e-01 -4.9196785688400269e-01</leafValues></_>
        <_>
          <internalNodes>
            0 -1 15 8.2567390054464340e-03</internalNodes>
          <leafValues>
            -7.3648595809936523e-01 6.4418339729309082e-01</leafValues></_>
        <_>
          <internalNodes>
            0 -1 0 3.1878852844238281e-01</internalNodes>
          <leafValues>
            -9.1817247867584229e-01 4.5829480886459351e-01</leafValues></_>
        <_>
          <internalNodes>
            0 -1 18 -2.2288432344794273e-02</internalNodes>
          <leafValues>
            5.5892008543014526e-01 -7.0280712842941284e-01</leafValues></_></weakClassifiers></_>
    <!-- stage 4 -->
    <_>
      <maxWeakCount>3</maxWeakCount>
      <stageThreshold>7.9927749931812286e-02</stageThreshold>
      <weakClassifiers>
        <_>
          <internalNodes>
            0 -1 7 1.5927167236804962e-01</internalNodes>
          <leafValues>
            -8.2809919118881226e-01 6.6873508691787720e-01</leafValues></_>
        <_>
          <internalNodes>
            0 -1 10 -5.3658126853406429e-04</internalNodes>
          <leafValues>
            -9.9169373512268066e-01 4.0633687376976013e-01</leafValues></_>
        <_>
          <internalNodes>
            0 -1 3 1.8634455278515816e-02</internalNodes>
          <leafValues>
            -7.5344866514205933e-01 5.0169003009796143e-01</leafValues></_></weakClassifiers></_>
    <!-- stage 5 -->
    <_>
      <maxWeakCount>3</maxWeakCount>
      <stageThreshold>-7.3066815733909607e-02</stageThreshold>
      <weakClassifiers>
        <_>
          <internalNodes>
            0 -1 16 -6.6419495269656181e-03</internalNodes>
          <leafValues>
            6.6887414455413818e-01 -8.7713313102722168e-01</leafValues></_>
        <_>
          <internalNodes>
            0 -1 13 2.5698955869302154e-04</internalNodes>
          <leafValues>
            4.3169710040092468e-01 -9.3049538135528564e-01</leafValues></_>
        <_>
          <internalNodes>
            0 -1 13 -2.2308199550025165e-04</internalNodes>
          <leafValues>
            -9.7037565708160400e-01 3.7236919999122620e-01</leafValues></_></weakClassifiers></_>
    <!-- stage 6 -->
    <_>
      <maxWeakCount>3</maxWeakCount>
      <stageThreshold>-7.5115948915481567e-01</stageThreshold>
      <weakClassifiers>
        <_>
          <internalNodes>
            0 -1 8 3.7696179933845997e-03</internalNodes>
          <leafValues>
            -9.4252872467041016e-01 6.3911843299865723e-01</leafValues></_>
        <_>
          <internalNodes>
            0 -1 4 3.3606702089309692e-01</internalNodes>
          <leafValues>
            -8.2833087444305420e-01 4.6744909882545471e-01</leafValues></_>
        <_>
          <internalNodes>
            0 -1 14 2.2640323266386986e-02</internalNodes>
          <leafValues>
            -5.6194704771041870e-01 6.5095514059066772e-01</leafValues></_></weakClassifiers></_></stages>
  <features>
    <_>
      <rects>
        <_>
          0 3 18 15 -1.</_>
        <_>
          6 3 6 15 3.</_></rects>
      <tilted>0</tilted></_>
    <_>
      <rects>
        <_>
          0 5 10 12 -1.</_>
        <_>
          5 5 5 12 2.</_></rects>
      <tilted>0</tilted></_>
    <_>
      <rects>
        <_>
          0 8 8 6 -1.</_>
        <_>
          4 8 4 6 2.</_></rects>
      <tilted>0</tilted></_>
    <_>
      <rects>
        <_>
          1 9 4 5 -1.</_>
        <_>
          3 9 2 5 2.</_></rects>
      <tilted>0</tilted></_>
    <_>
      <rects>
        <_>
          2 0 17 18 -1.</_>
        <_>
          2 6 17 6 3.</_></rects>
      <tilted>0</tilted></_>
    <_>
      <rects>
        <_>
          2 4 18 14 -1.</_>
        <_>
          8 4 6 14 3.</_></rects>
      <tilted>0</tilted></_>
    <_>
      <rects>
        <_>
          3 2 16 18 -1.</_>
        <_>
          3 8 16 6 3.</_></rects>
      <tilted>0</tilted></_>
    <_>
      <rects>
        <_>
          3 5 16 15 -1.</_>
        <_>
          3 10 16 5 3.</_></rects>
      <tilted>0</tilted></_>
    <_>
      <rects>
        <_>
          4 7 4 2 -1.</_>
        <_>
          6 7 2 2 2.</_></rects>
      <tilted>0</tilted></_>
    <_>
      <rects>
        <_>
          4 14 14 6 -1.</_>
        <_>
          4 17 14 3 2.</_></rects>
      <tilted>0</tilted></_>
    <_>
      <rects>
        <_>
          6 6 8 7 -1.</_>
        <_>
          10 6 4 7 2.</_></rects>
      <tilted>0</tilted></_>
    <_>
      <rects>
        <_>
          7 2 9 6 -1.</_>
        <_>
          7 5 9 3 2.</_></rects>
      <tilted>0</tilted></_>
    <_>
      <rects>
        <_>
          7 16 8 4 -1.</_>
        <_>
          7 18 8 2 2.</_></rects>
      <tilted>0</tilted></_>
    <_>
      <rects>
        <_>
          8 10 4 2 -1.</_>
        <_>
          10 10 2 2 2.</_></rects>
      <tilted>0</tilted></_>
    <_>
      <rects>
        <_>
          9 14 4 6 -1.</_>
        <_>
          9 16 4 2 3.</_></rects>
      <tilted>0</tilted></_>
    <_>
      <rects>
        <_>
          10 1 1 6 -1.</_>
        <_>
          10 4 1 3 2.</_></rects>
      <tilted>0</tilted></_>
    <_>
      <rects>
        <_>
          10 9 8 8 -1.</_>
        <_>
          10 9 4 4 2.</_>
        <_>
          14 13 4 4 2.</_></rects>
      <tilted>0</tilted></_>
    <_>
      <rects>
        <_>
          15 0 3 18 -1.</_>
        <_>
          15 6 3 6 3.</_></rects>
      <tilted>0</tilted></_>
    <_>
      <rects>
        <_>
          16 9 4 5 -1.</_>
        <_>
          18 9 2 5 2.</_></rects>
      <tilted>0</tilted></_>
    <_>
      <rects>
        <_>
          16 10 4 3 -1.</_>
        <_>
          18 10 2 3 2.</_></rects>
      <tilted>0</tilted></_></features></cascade>
</opencv_storage>
